-0.0731  -0.2160  -0.1886  0.0065  -0.1800  0.0046  -0.0325  -0.0800  -0.0394  0.0202  -0.0707  -0.1038  -0.0206  0.0506  0.1263  -0.1728  0.0119  0.1532  -0.1877  -0.1518  -0.1537
-0.2015  0.0694  0.2174  0.1746  0.1167  -0.0810  0.0150  -0.1445  -0.0503  -0.1968  0.0433  0.1682  -0.1172  -0.1805  0.1566  -0.0077  -0.1663  0.1575  -0.0398  -0.0884  0.2153
-0.0575  0.0146  0.2124  -0.1556  -0.1992  -0.1644  0.0327  0.0768  -0.1082  -0.2053  -0.1831  0.0947  0.0304  0.0925  -0.1919  -0.0726  -0.0311  0.1038  0.0181  -0.1527  0.1912
0.1895  -0.1977  -0.1019  0.1048  0.0227  -0.1077  -0.1076  0.0496  0.0257  -0.1626  0.0947  -0.0255  -0.2079  -0.1787  0.2026  -0.0534  0.1260  0.1937  -0.0145  0.1352  -0.1068
-0.1256  0.1699  0.1561  0.0019  -0.1814  0.1581  0.1105  0.0626  -0.0163  -0.0957  0.1971  -0.0468  0.1654  -0.1215  0.0977  0.1178  -0.1623  -0.2128  0.1186  0.1541  0.0878
-0.0554  -0.0432  0.1682  -0.0264  0.1272  -0.0058  -0.1826  -0.1100  0.0452  0.1772  -0.1594  -0.0406  0.2070  -0.0659  -0.0950  0.1900  0.1437  -0.0006  -0.1583  0.1961  0.1459
0.0907  -0.1878  0.1091  0.2175  -0.1518  -0.0651  -0.1006  -0.0795  -0.1345  0.2070  -0.1350  0.0398  -0.0353  -0.1556  0.1852  0.0925  -0.1658  0.0786  0.0903  0.1267  -0.1508
0.1466  -0.1246  0.0871  0.1396  -0.1559  0.0916  -0.1542  0.1897  -0.0138  -0.0516  -0.1791  -0.1939  0.1533  -0.1157  0.2179  0.1019  -0.1002  0.1597  0.2016  0.0107  0.0108
-0.1685  0.1190  -0.1852  -0.1559  -0.1145  -0.0496  -0.0541  0.2143  -0.0578  -0.1458  0.0451  0.2222  0.1461  -0.1027  0.1660  0.1819  0.2080  -0.1613  0.0650  -0.2156  0.0568
-0.1939  -0.0412  0.2018  -0.1658  -0.0672  0.0544  0.1128  0.1141  0.0841  0.1408  0.0306  -0.0909  0.0253  -0.1158  -0.1551  -0.1626  -0.0722  0.0838  0.1610  -0.0596  -0.0903

