-0.0831  -0.2260  -0.1786  -0.0035  -0.1900  -0.0054  -0.0425  -0.0700  -0.0294  0.0102  -0.0607  -0.0938  -0.0306  0.0406  0.1163  -0.1628  0.0019  0.1432  -0.1777  -0.1418  -0.1637
-0.2115  0.0794  0.2074  0.1846  0.1067  -0.0910  0.0250  -0.1545  -0.0603  -0.1868  0.0533  0.1782  -0.1272  -0.1705  0.1666  0.0023  -0.1763  0.1675  -0.0298  -0.0984  0.2253
-0.0675  0.0046  0.2024  -0.1656  -0.1892  -0.1544  0.0227  0.0868  -0.0982  -0.2153  -0.1931  0.0847  0.0404  0.0825  -0.1819  -0.0826  -0.0211  0.0938  0.0081  -0.1627  0.1812
0.1995  -0.2077  -0.0919  0.0948  0.0127  -0.1177  -0.1176  0.0596  0.0157  -0.1526  0.0847  -0.0155  -0.1979  -0.1887  0.1926  -0.0634  0.1160  0.1837  -0.0045  0.1452  -0.1168
-0.1356  0.1799  0.1461  0.0119  -0.1914  0.1681  0.1205  0.0526  -0.0263  -0.0857  0.2071  -0.0568  0.1554  -0.1315  0.0877  0.1278  -0.1723  -0.2228  0.1286  0.1641  0.0978
-0.0454  -0.0332  0.1582  -0.0364  0.1172  -0.0158  -0.1926  -0.1200  0.0352  0.1872  -0.1494  -0.0506  0.2170  -0.0559  -0.1050  0.1800  0.1537  -0.0106  -0.1483  0.2061  0.1559
0.1007  -0.1778  0.1191  0.2075  -0.1618  -0.0551  -0.0906  -0.0895  -0.1445  0.2170  -0.1450  0.0498  -0.0253  -0.1656  0.1952  0.0825  -0.1558  0.0686  0.0803  0.1367  -0.1408
0.1466  -0.1246  0.0871  0.1396  -0.1559  0.0916  -0.1542  0.1897  -0.0138  -0.0516  -0.1791  -0.1939  0.1533  -0.1157  0.2179  0.1019  -0.1002  0.1597  0.2016  0.0107  0.0108
-0.1585  0.1090  -0.1752  -0.1659  -0.1245  -0.0596  -0.0641  0.2043  -0.0678  -0.1358  0.0351  0.2322  0.1361  -0.0927  0.1560  0.1719  0.1980  -0.1513  0.0750  -0.2256  0.0468
-0.1839  -0.0312  0.1918  -0.1758  -0.0572  0.0644  0.1028  0.1041  0.0941  0.1308  0.0206  -0.0809  0.0353  -0.1058  -0.1451  -0.1726  -0.0622  0.0938  0.1710  -0.0696  -0.1003

